{"input_size": 16, "hidden_size": 8, "output_size": 1, "w1": [[-0.11622231057007523, -1.0351820589283598, -0.7894788815700408, 1.4258344932600915, 1.8303453995120171, 0.839765961837054, 1.3621293621788766, -0.8387940760316671], [-0.4449032909265678, -0.8952340928040872, 0.015808516378256136, -0.5691352426577985, 0.8157689549203059, 0.5088643465637731, 0.9106810849225302, -0.969668199511021], [-0.26765496610298745, -0.918482729476461, -0.8176734253362035, -0.35517067160701143, -0.3524572297913039, -0.663351663972889, 0.22734920404776238, -1.7509648484783025], [0.5054989639078018, -1.1941813399992678, 0.22345917009374053, 1.3553545162969485, -1.091313264729369, 0.4500364345927122, 0.07111578497994775, -0.14426829677070807], [-0.372003608145772, -0.8749819874755566, 0.678876857730208, -1.0176962016360687, -0.4287178391802897, -0.4680148700988856, -0.46368270947869306, -1.1188898518320534], [0.8312852395386235, -0.7651363394740782, -0.14973561371440336, 0.05345808903491853, 0.765602971440107, -1.4851712776391792, -0.570385432784538, -0.7624747958572837], [-0.4341326292426365, -1.1171435959562601, 0.8871368598294718, 0.40155769504327377, 0.09792031909467062, 0.4030074916328841, -0.7704535843256108, -0.8698562155359857], [0.5585245246308612, -0.9862716898119146, -0.09762046608326613, 0.2648559514511568, -2.47785457913005, -0.05725646266316091, -1.0171483313289127, -0.8461395920038428], [0.3314125589090981, -0.9235404193944096, -0.7981629359331636, 1.062153828675234, 1.5097461255380245, -1.4151439930138723, -0.1269138358997906, -0.5582872259267216], [0.8651677591980557, -0.8176808279605715, 1.523426531817928, -0.5295649899733424, 0.5793758295396724, -0.9723952405119878, 0.7452034162504557, -1.2420132791381708], [0.14051448625318502, -1.335354492246557, 1.7187003544740107, -1.0349045879407515, 0.4414110543398593, 0.2870324348452412, -1.5664510489082897, 0.01583548894334308], [-1.1213903618798988, -1.2132330844853962, 2.2858363947327835, 1.1469348808811282, -0.20926954600781483, 0.19093247281380177, 0.730305785268585, -0.7085500437068776], [0.8743141701139774, -0.7866103018954029, -0.1994210493421292, -0.001870297682961597, -0.009563862829029962, -1.1393052680895397, -1.2811740028280993, -0.6835211934617315], [0.5970189503474574, -1.317082319568274, 0.36268081036602745, 1.7817387309589647, -0.26125070882951285, -1.1059097388639898, -1.2487586489526061, 0.04757960960122819], [0.8957207629695608, -0.8097908527130196, -1.1294054618353098, 1.4586679575804926, -1.0127863828316077, -0.9661334073756099, -2.065815298749297, -0.9343449547058815], [0.8902718978319547, -0.8952782868827682, 0.2895596547724782, 0.3100666384805038, 0.04897128528938878, -1.3744798075928615, -1.2440554001885427, -0.3474201536961773]], "w2": [[0.8860226471370938], [-3.3452705711791397], [0.3288863621203535], [-0.1375611500515803], [0.5492659855213274], [0.5790932780129757], [-0.4765604790946478], [-1.5236217324743024]], "b1": [[-0.17320398480018945, 7.636752942188139, -1.0949972935160721, 2.531386443510817, 0.4269120205211846, -1.1542863859661385, 2.5842106137737013, 5.2021462445389695]], "b2": [[0.1436221832604877]]}