{"input_size": 16, "hidden_size": 8, "output_size": 1, "w1": [[0.38272965839231615, 0.08068448220558291, 1.6719663524069603, -0.31043744736431134, -0.0487410835016108, 0.3426963194908555, 0.9656229595773883, 0.955430654302931], [-0.5620022120318743, 1.4988122666529387, -1.234925231560066, 1.695888579275749, 0.05513418913963483, 0.3962080303515234, 1.1044395649768641, -0.5025915974379103], [0.425828668202706, 1.058676219807184, 0.9286334364943882, 0.19740994435693826, 1.2154607211785458, -0.17103585375545216, 1.0947083024487267, -0.4006173194887114], [-0.7098123352483996, 0.022698643068292515, -0.05437891497970998, 0.44363893956171185, -0.1431568317975072, -0.28887013784548593, 1.0194585642689797, -0.8133181355224549], [0.5996236245431704, -1.180085689726197, -0.10090043807865974, -2.14837066868595, -0.9994329598340138, -0.40744628649859005, 1.214636506922349, 0.4659739312760956], [0.21399103863698565, 0.421713197880323, 1.355512601839401, -1.156850994491779, 0.9238672116110195, 0.22855483362465384, 1.0231582418319922, -0.8392399255176599], [0.4729132112109749, -0.5490912792662037, 1.2156584054999904, -0.4679274782719864, 0.3878111420352788, -1.4147082398098023, 1.332397757503296, 0.24472290445811243], [-0.08482789614749178, -0.4961562527694836, 0.08023099278646269, -1.1693673904076758, -0.09316019752586067, -0.2330096855250604, 1.0312898838353686, -0.6328555511085849], [1.2840077043065867, 0.5514838715600834, 1.997798535649094, 1.1437329248360755, -1.1670295449837902, 1.172586393289665, 1.0924430983072475, -0.9229573786538454], [0.5058529334029387, 1.349072087620937, 0.4261915209769574, 0.3810101256768796, 0.8497531504661915, -0.7545599514773709, 0.893925338176271, -0.7400059725737693], [1.1521885551254678, 0.18868452001552502, -0.04674903740458079, -0.9718279100168958, 0.150105206935659, 0.1318692725713969, 1.0556010048244413, 0.4383906708087111], [0.6146931835079426, 0.08014422784495989, -0.7853006545640737, 0.09682704061929207, -0.4844948727860017, -1.4085745359853652, 1.1329783454654885, -1.0296875162655654], [0.9447713701287668, 0.9494343822157851, -0.3925455740206588, 1.4805098266221723, -1.0065968546564839, -1.9276486749708546, 0.986140652971673, -1.0427316969572977], [0.8884763200561104, 0.7383992460780089, -0.14089384050678339, -1.9831004296594594, -0.7501001729475414, 0.5468200788903099, 0.9554900990050413, -0.4694859171004794], [0.2894031354798792, 0.6495002047380091, -0.07154141305827091, -0.2982488309819668, -0.5999722032520616, -0.6329269602099395, 0.839219236715373, -0.8724413572407586], [-0.9836058407431867, 0.3855928540422481, 1.8958497871494469, 1.8826883630836928, 0.2873172765594768, -0.0058140374919704585, 1.0964363045663599, 0.3514277524293262]], "w2": [[0.09991027691012742], [-0.6391160115793121], [-0.6796468358262984], [0.33544388130214636], [0.2723054875061811], [0.37421594899788646], [-4.228171069269054], [-0.5357593473065437]], "b1": [[0.1974663639734826, -2.7563975259479094, 0.5356749696210718, -0.4779345958041213, 1.2867505041459482, 1.2875848162624373, -7.352022093951689, -1.3180391693378755]], "b2": [[1.9699814528497535]]}